%YAML:1.0
my_nn: !!opencv-ml-ann-mlp
   layer_sizes: !!opencv-matrix
      rows: 1
      cols: 3
      dt: i
      data: [ 3, 10, 2 ]
   activation_function: SIGMOID_SYM
   f_param1: 6.6666666666666663e-001
   f_param2: 1.7159000000000000e+000
   min_val: -9.4999999999999996e-001
   max_val: 9.4999999999999996e-001
   min_val1: -9.7999999999999998e-001
   max_val1: 9.7999999999999998e-001
   training_params:
      train_method: BACKPROP
      dw_scale: 1.0000000000000001e-001
      moment_scale: 1.0000000000000001e-001
      term_criteria: { epsilon:9.9999999747524271e-007, iterations:1000 }
   input_scale: [ 2., -1., 2., -1., 2., -1. ]
   output_scale: [ 1.0526315789473684e+000, 0., 1.0526315789473684e+000,
       0. ]
   inv_output_scale: [ 9.4999999999999996e-001, 0.,
       9.4999999999999996e-001, 0. ]
   weights:
      - [ -5.4371273260653163e-001, 8.7308619615865446e-001,
          -3.4461206334620763e-002, 2.5056514579845990e+000,
          2.9949080770887093e-001, 1.3906792107895387e+000,
          2.3024861441741460e+000, -9.4998425698630498e-002,
          -1.2288965612594411e+000, -6.2429843601622403e-001,
          8.0560237975373428e-001, 8.9453289889791854e-001,
          2.6321444517676645e-001, 2.6588302977625777e+000,
          -6.4467340702532328e-001, -1.4990808091498440e+000,
          2.0655433504273741e+000, 6.4570076816870914e-001,
          1.1864506386127023e+000, -4.9603819959146722e-001,
          1.2960677656800732e+000, 3.1148444906416900e-001,
          1.0641995257042512e-001, -2.4128660573054157e+000,
          1.1262452014120614e+000, 2.0175520747220053e+000,
          1.7915062290719526e+000, 4.9790794192745291e-001,
          1.2126968469822044e+000, -1.4230397109181275e-001,
          -2.4593395968895856e-001, -2.7336976708641653e-001,
          7.7105617664905535e-001, -5.2585424561093670e-002,
          4.6560144681132748e-001, -8.9579381602698904e-002,
          6.3421585989012564e-003, 2.0298708753684072e-001,
          -1.1487745278155919e-002, -4.3069457516752241e-001 ]
      - [ -1.0295281751610013e+000, 1.8353773692337053e-001,
          3.6496746979665651e-001, -3.2608967577594289e-001,
          1.4596781723560265e-001, 6.1551919977933120e-002,
          -1.9877771905778785e+000, 1.7367724584504478e+000,
          -6.3328652212121261e-001, 5.0075434416649012e-001,
          -1.2298891831368743e+000, 1.4101964446125761e+000,
          1.4380918473211788e+000, -1.7701112751836727e+000,
          6.4817253039232514e-001, 9.1575423229733643e-001,
          -9.0634596348744456e-001, 9.2120061632327122e-001,
          -4.6348454220893398e-001, -2.0143660222384591e-001,
          -2.3081631337401345e-001, -2.3632192085629972e-001 ]
